{"layers":[{"0":{},"1":{},"2":{},"3":{},"4":{},"5":{},"6":{},"7":{},"8":{},"9":{},"10":{},"11":{},"12":{},"13":{},"14":{},"15":{},"16":{},"17":{},"18":{},"19":{},"20":{},"21":{},"22":{},"23":{},"24":{},"25":{},"26":{},"27":{},"28":{},"29":{},"30":{},"31":{}},{"0":{"bias":0.2513070621535473,"weights":{"0":0.9481185338729802,"1":-0.26018606274672473,"2":-0.9419119656368452,"3":-0.5400586754213721,"4":-0.7739925290068519,"5":1.061875784701189,"6":0.7614007566964933,"7":0.278193023169816,"8":-0.5627014695548141,"9":1.1552728345918484,"10":-0.9607706648774019,"11":-1.612790061417059,"12":0.3373549406272314,"13":0.22210811618706852,"14":0.361056698025881,"15":-0.06045154546275319,"16":0.07033919572879338,"17":-0.45147283042977354,"18":0.5846360044663914,"19":-0.21852715091384176,"20":0.5574600024555464,"21":0.03251026935721006,"22":0.00032445199696694743,"23":0.16000794847837677,"24":0.05262654936371934,"25":-0.3348007814147729,"26":-0.23109896308316308,"27":0.18464268557254104,"28":-0.3557414080130914,"29":-0.11515876448861533,"30":0.36622528389809694,"31":-0.8892802582953149}},"1":{"bias":-0.10330539877866096,"weights":{"0":-0.21685216513582245,"1":0.07053715366720606,"2":0.5472325230074985,"3":0.3719147535854637,"4":0.07446792313824177,"5":-0.16442695371058216,"6":-0.3684544426730088,"7":-0.12478338950615268,"8":0.07883400935371487,"9":-0.5893501704807065,"10":0.41792876289279723,"11":0.5877899787270545,"12":-0.044867348242022646,"13":0.025321331773174884,"14":-0.2247909280384814,"15":-0.1183186022551747,"16":-0.06637963592831125,"17":-0.09438256296132272,"18":-0.29188618346552736,"19":0.2741141781565937,"20":-0.2946172007204684,"21":0.13306788545077458,"22":-0.012047913470118292,"23":-0.010340304531288149,"24":-0.14777383775293712,"25":0.13641996918923843,"26":0.1737579229492243,"27":0.0322246317505771,"28":0.08597207013523485,"29":0.06786448635595288,"30":-0.23368448530579675,"31":0.09441716365969725}},"2":{"bias":0.05930394531742827,"weights":{"0":0.4318561302220693,"1":-0.03227970255048042,"2":-0.6743351194382167,"3":-0.25334026806884974,"4":-0.5181870486604598,"5":0.22081705599196125,"6":0.25266716754999746,"7":-0.3184341327274521,"8":-0.6810002749506414,"9":0.058821925982413203,"10":-1.0045014081803227,"11":-0.8711983488129684,"12":-0.22592203983066414,"13":-0.12718301495056109,"14":-0.2154637740171472,"15":0.4480374214432695,"16":-0.2713515873518865,"17":-0.40816347471943454,"18":0.09395843312436415,"19":0.1760421232853962,"20":0.08566660462719677,"21":0.10377208509055189,"22":0.12061736604325943,"23":0.06372496430344742,"24":-0.0003259402686847749,"25":-0.45897349206198423,"26":-0.21565569853107724,"27":0.06621950291677312,"28":-0.5186577762867813,"29":-0.1743729220910391,"30":-0.002843232401792651,"31":-0.6565217043732223}},"3":{"bias":0.13490720732480332,"weights":{"0":0.5706131068131266,"1":-0.05481987972034534,"2":-0.8339387310172126,"3":-0.33967106866372904,"4":-0.48162578431541603,"5":0.42784473552539143,"6":0.6302091076929073,"7":0.1939267156161902,"8":-0.2649667098061838,"9":0.7101797431813125,"10":-0.9918077971915396,"11":-1.3917381095844026,"12":-0.047586444619141875,"13":-0.03839984320394402,"14":0.11367624055754133,"15":0.3137115597384446,"16":-0.09734545509181812,"17":-0.43182863306337754,"18":0.20781585602066263,"19":-0.12939019289396314,"20":0.47687245413458274,"21":-0.0004328911138582933,"22":0.03546879113169459,"23":0.24999119897008262,"24":-0.05832217711908159,"25":-0.2644076155301606,"26":-0.291650935318091,"27":-0.059870117348762214,"28":-0.5532712530965269,"29":0.032956539826335875,"30":0.3907785734072005,"31":-0.48608595401918475}},"4":{"bias":-1.2069059213081108,"weights":{"0":1.6012052588252987,"1":0.8944857459840665,"2":0.060635164056077544,"3":-0.8448293241757326,"4":-0.9326922354119576,"5":1.4235858029237716,"6":0.8623744788277613,"7":0.5581600097059481,"8":-0.9257170917424903,"9":1.0343531546462523,"10":-1.8166256010946409,"11":-2.125845056649666,"12":0.2680736096715415,"13":-0.17881755045552344,"14":0.9863551047743848,"15":0.3842666657809377,"16":-1.6562725210814895,"17":-2.1305474897277903,"18":-0.33396667195468477,"19":0.18718976376167534,"20":1.3099178552080357,"21":0.7129069610330911,"22":0.37590747747129605,"23":0.20110168574500717,"24":-0.42408077894010604,"25":-1.3871791991379303,"26":-0.7804800225154175,"27":-0.1756700415640719,"28":-1.0461538174926748,"29":1.3676664157551939,"30":3.0203201287716452,"31":1.2563764340440358}},"5":{"bias":-0.43014351258006517,"weights":{"0":-1.1281472241773993,"1":0.1738247515382841,"2":1.3095899173889227,"3":0.584320910306716,"4":0.6911523399321343,"5":-1.455919899875446,"6":-1.259406797400652,"7":-0.5401894954573303,"8":0.6011685265198404,"9":-1.6293406574529927,"10":1.2749436827798595,"11":1.7204677957788252,"12":-0.570806233522456,"13":0.09323786329445001,"14":-0.4467588235953389,"15":0.30322313460544487,"16":-0.2550919404898358,"17":0.45241329442584605,"18":-1.0339099939952772,"19":0.150385685914479,"20":-0.4860700840117785,"21":0.052223181804106525,"22":-0.3566773495981124,"23":-0.22780671670546662,"24":-0.19379423986772312,"25":0.5978125841747438,"26":0.25200530643719515,"27":-0.11445846691975292,"28":1.0552621682677283,"29":0.6770250644211799,"30":-0.8472965295905882,"31":0.6983480232323106}},"6":{"bias":0.1575163354286784,"weights":{"0":0.8720758150643605,"1":-0.2642504895108885,"2":-1.119349418881593,"3":-0.4262933329808481,"4":-0.5950213262608821,"5":1.1263491220252724,"6":0.8597748922181249,"7":0.24937535386427895,"8":-0.5545179031035558,"9":1.172806662796647,"10":-0.9022892907965286,"11":-1.4162997041375647,"12":0.10822994229680159,"13":-0.051940656247699064,"14":0.22821336071497275,"15":-0.06272862559036749,"16":-0.0786290029847744,"17":-0.3005380296550648,"18":0.880996953327021,"19":-0.2881583178262025,"20":0.6506327785111657,"21":-0.10900067340359648,"22":0.37373136140039687,"23":0.15320778829243253,"24":0.24458775332839136,"25":-0.532113197841155,"26":-0.16501058163912213,"27":0.23518963908191481,"28":-0.5878993558836337,"29":0.13993193733518375,"30":0.4658592983011151,"31":-0.46772055210559343}},"7":{"bias":-0.17959899690605483,"weights":{"0":0.7001828690288117,"1":0.3122314749545789,"2":-0.06420752736528904,"3":-0.48466589581600145,"4":-0.5828090569891597,"5":0.21197032767174062,"6":0.16682932690578775,"7":-0.22991682977045558,"8":-0.5495529692365054,"9":0.32881628285231246,"10":-0.8974202997337196,"11":-0.9440916725845565,"12":-0.013790533352977712,"13":-0.37690518973797127,"14":-0.2139050525406296,"15":0.24781298778696395,"16":-0.36826507896630023,"17":-0.7813632334017464,"18":0.12661036203101972,"19":-0.5453936435608914,"20":0.19102374292585778,"21":0.09489684037098775,"22":0.11863571035136791,"23":0.3342155746212769,"24":0.23327558041860788,"25":0.01795623833601996,"26":-0.04860847124092075,"27":0.11647210878324192,"28":-0.24144970301148364,"29":-0.22261693124202117,"30":0.044000684751947676,"31":-0.6745825489014046}},"8":{"bias":0.34751640176088733,"weights":{"0":0.7930497164021467,"1":-0.2549284885946649,"2":-0.9331657297686792,"3":-0.7819512085043174,"4":-0.5881768862094651,"5":0.5956870690431032,"6":0.5052437928030917,"7":-0.16436634096200217,"8":-0.4378709016533316,"9":1.2839023461592443,"10":-1.212376017202252,"11":-1.685722384715092,"12":-0.100236880756338,"13":-0.2991940626418129,"14":-0.09496682995615195,"15":0.08394369546207354,"16":0.15565503268254918,"17":-0.5594128853176633,"18":0.6084698408602836,"19":-0.40406718660675134,"20":0.4222045306507794,"21":-0.03628989489607686,"22":0.09407522414912803,"23":0.17091506394755956,"24":0.3602177777154393,"25":-0.27929234905541495,"26":-0.015210145820297172,"27":-0.03170466198463647,"28":-0.33244316594955975,"29":-0.27745340206255076,"30":-0.12284417936294385,"31":-1.215975543978508}},"9":{"bias":-0.31379745585534025,"weights":{"0":-0.8079068152522839,"1":0.4236993632023098,"2":0.9470804842502909,"3":0.3116714922609743,"4":0.4456390530739448,"5":-1.0053783469130253,"6":-0.7802937912613856,"7":-0.34948662264788466,"8":0.306841960454338,"9":-1.1415935322400297,"10":1.0357364170621453,"11":1.443131752171341,"12":-0.20834511077689752,"13":-0.09223813319341063,"14":-0.20474464685087496,"15":0.19353996870204643,"16":-0.186616502277422,"17":0.3737175811758755,"18":-0.7349177201387932,"19":0.4446981674896017,"20":-0.5089199990855908,"21":-0.12960875138487365,"22":-0.08702386027141093,"23":-0.37975747192559645,"24":-0.14491166021927912,"25":0.537264377500927,"26":-0.044471019294098704,"27":0.008274627617391698,"28":0.7020049364321409,"29":0.13472773253483994,"30":-0.6295704860102392,"31":0.5748330681242653}},"10":{"bias":0.1998202020010555,"weights":{"0":0.6198392474637515,"1":0.044425916773528806,"2":-0.40161748469373226,"3":-0.5800398051737269,"4":-0.41270641406624475,"5":0.29621152304415244,"6":0.3507155076564818,"7":-0.37515773495047094,"8":-0.8086815206690349,"9":0.12254184250320999,"10":-1.016114186590158,"11":-1.0648098252715004,"12":-0.14929939507601167,"13":-0.42155100345810304,"14":-0.13180826825081718,"15":0.6774495171601588,"16":-0.40336946631466075,"17":-0.527194550019163,"18":0.24533533339952363,"19":-0.03373211318661778,"20":0.058395938404650294,"21":0.0004310438865963871,"22":0.2215317893096476,"23":0.0695240212087698,"24":0.3212089078833758,"25":-0.20217688175859416,"26":-0.14428150661751316,"27":-0.026874553908576057,"28":-0.2840196743831039,"29":-0.57420203303443,"30":-0.3475454075785053,"31":-0.8091572615654408}},"11":{"bias":0.021568689431752264,"weights":{"0":0.4664265254257262,"1":0.11427542116529893,"2":-0.7386907719799085,"3":-0.34189461496049683,"4":-0.21520195434774333,"5":0.6835276039428194,"6":0.2952185772305778,"7":-0.06884490411153169,"8":-0.3922154400523687,"9":0.5296452837365899,"10":-0.6052739670141878,"11":-0.9753750231766326,"12":0.09213772276937382,"13":-0.1392298823670102,"14":0.18030594217275142,"15":0.15617204328206102,"16":0.00326749570715018,"17":-0.26894380083733277,"18":0.14033404164822447,"19":-0.05673616762191461,"20":0.4050422451353561,"21":0.09534232148802257,"22":0.27446183406048547,"23":0.21257113020995244,"24":0.03467612414815726,"25":-0.43599385592016676,"26":-0.07441471339137341,"27":0.18997547920182328,"28":-0.4773539203489497,"29":-0.25831123716963467,"30":0.2557563179089846,"31":-0.270750693801722}},"12":{"bias":-0.3452358266065888,"weights":{"0":0.06152278394921943,"1":-0.17759357018003166,"2":-0.04964425894102395,"3":-0.12750038502252498,"4":-0.1661015927293145,"5":0.06563277635846802,"6":-0.02401103278544759,"7":-0.07231544082992915,"8":-0.03982510849553892,"9":0.03528787450549771,"10":-0.038581094834831436,"11":0.08066040598355018,"12":0.09538601904085392,"13":-0.031160790466088432,"14":-0.06809731389490498,"15":-0.16694925108964037,"16":-0.21280708126943243,"17":-0.1047047476698759,"18":-0.28062108381119016,"19":-0.015470643350564667,"20":-0.011467885924506168,"21":-0.20984931066948737,"22":-0.005174973435629302,"23":0.11718597168823311,"24":0.07556673986149844,"25":0.05089867518357486,"26":0.020958371705666258,"27":-0.1473883199746726,"28":-0.07002413882644681,"29":-0.08972521798523521,"30":-0.10036275228571492,"31":0.16992837802689173}},"13":{"bias":-0.23947465368939128,"weights":{"0":-0.9753113427752744,"1":0.3451174402560952,"2":1.2278780710953678,"3":0.43395895080694386,"4":0.6971416107795865,"5":-1.0020090989537132,"6":-0.6960622523067304,"7":-0.4784744370672645,"8":0.22934397646727867,"9":-1.1140797161157123,"10":0.8276881279092656,"11":1.124368157953365,"12":-0.21593845566890907,"13":-0.22604821966234148,"14":-0.4037862103634379,"15":0.19752205783288324,"16":-0.36932686311883944,"17":0.40318504082367,"18":-0.6942303553753585,"19":0.4294771984972531,"20":-0.36492460590169395,"21":-0.011733953041322317,"22":-0.2395871081624218,"23":-0.3036240873173718,"24":-0.12240202260493818,"25":0.6475935597109604,"26":0.20132030858488587,"27":-0.1348024654891438,"28":0.6751744814548067,"29":0.2712947082630696,"30":-0.44194316156343094,"31":0.5176037502555925}},"14":{"bias":-0.19499329132716117,"weights":{"0":-0.3394111721818249,"1":0.1511331643756513,"2":0.5207852776559733,"3":-0.01298701976482856,"4":0.18944436715203442,"5":-0.44420707053091163,"6":-0.3265018694715956,"7":0.0705246301209345,"8":-0.031491809036757024,"9":-0.2802795846469749,"10":0.17955505780643294,"11":0.5179488159048211,"12":-0.12500087647601155,"13":0.04017246125310133,"14":0.03798227905022832,"15":0.03485303489562613,"16":0.04960268343453324,"17":-0.06902119669531234,"18":-0.11125122507165855,"19":-0.060284704587833055,"20":-0.11175995584934043,"21":0.11142181368728944,"22":-0.051857868026323355,"23":0.08477929432901789,"24":0.08641872788459877,"25":0.2255181838969118,"26":0.21019683713022516,"27":-0.18575281478584546,"28":0.07974427062723184,"29":-0.004988265254090156,"30":-0.25027106835704604,"31":0.3723468629597435}},"15":{"bias":-0.3723111682060495,"weights":{"0":-1.416359489977277,"1":0.434294543016808,"2":1.202937119212447,"3":0.4286302449189589,"4":0.46538296593215916,"5":-1.5527873143678486,"6":-1.4056003279465292,"7":-0.5604510745887544,"8":0.40253941809064775,"9":-1.8251129892805167,"10":1.0115575322857768,"11":1.497471111654602,"12":-0.49013755354627697,"13":-0.31405145812038926,"14":-0.5321123384506544,"15":0.5512177457647396,"16":0.6130521499758961,"17":0.84790019093011,"18":-0.7923379421838562,"19":0.7612007631029406,"20":-0.5836812717266886,"21":-0.35972392864015795,"22":-0.5205983576521139,"23":-0.48736765755731554,"24":-0.11461344535529197,"25":0.3677930575646783,"26":0.018780323537545454,"27":-0.29735449012144566,"28":0.5709649818283218,"29":0.22286724342833084,"30":-0.7996719829777746,"31":1.1927411855499115}}},{"chr":{"bias":-0.5272030545065353,"weights":{"0":2.9917015296398564,"1":-1.2707997782660425,"2":1.7604291666076042,"3":2.1559876820247945,"4":5.343936081084687,"5":-4.233885384005369,"6":2.94037013703331,"7":1.8023923782838613,"8":2.9533714773217876,"9":-3.1459855058752284,"10":2.1129304061818046,"11":1.6627598340461849,"12":-0.1534206168844749,"13":-3.1523465273841156,"14":-1.0732901559002435,"15":-4.222698421031494}}}]}